{
  "levels": [
    {
      "inputs": [
        0.36860682218167584, 0.01658206969882614, 0, 0, 0, 0.04040292014859215
      ],
      "outputs": [
        0.14463846695769425, -0.0016116524888578666, -0.0028063662777489274,
        -0.002865939968020842, 0.17628320673528422, 0.5587576893261434,
        0.11743880410996974, 0.24355438097793383
      ],
      "biases": [
        -0.005111627875746011, -0.20715306048244983, -0.19901902268763455,
        -0.2688224847375916, 0.19927612123065813, 0.5637026998483442,
        0.2371717708866338, 0.1863600983775506
      ],
      "weights": [
        [
          0.39796249134733447, 0.16048878702189912, -0.208341334304954,
          -0.05592593758984428, -0.048871160835943506, -0.04395616243554479,
          -0.30433875619063183, 0.17758606951900532
        ],
        [
          0.08475408600807317, -0.024856609908672382, 0.022653708725166418,
          0.21131855497018026, 0.19655118430591467, 0.3855036499901363,
          0.22602584821988309, 0.1910991150438242
        ],
        [
          0.27375430744307633, -0.14935214432898292, -0.34723299613951497,
          0.13803391002587265, 0.277766574304046, -0.15659020503130913,
          0.10205654467077405, 0.23157953131758552
        ],
        [
          0.048880291583369484, 0.07957261787566888, 0.017781906283054552,
          -0.20943280728736915, 0.1696624411826385, 0.1315217530496397,
          -0.06060861663433881, 0.03241731543590244
        ],
        [
          -0.15781205461010805, -0.2661813614881709, 0.2557671492353981,
          -0.25347761364883925, -0.3049459652540413, -0.3760705398772538,
          0.4124799199296173, 0.14682261335120766
        ],
        [
          0.04091306724541466, -0.3157513392193069, -0.12863459566591826,
          -0.01635844480323076, -0.20389359508069532, 0.1204141289116239,
          -0.2796728879465307, -0.2829986781089289
        ]
      ]
    },
    {
      "inputs": [null, null, null, null, null, null, null, null],
      "outputs": [0, 0, 1, 0],
      "biases": [
        0.09971666840666255, -0.24438373709682118, 0.2610244940829539,
        -0.25489758345335256
      ],
      "weights": [
        [
          -0.19715178880223205, 0.07858536090924272, 0.03129912439645893,
          -0.25783168090179487
        ],
        [
          -0.25358780304416345, -0.30399920313272605, 0.5784455077600921,
          -0.13044845676766992
        ],
        [
          0.05582742797508123, -0.0907352804574136, -0.1988496076566338,
          -0.21804726187899875
        ],
        [
          0.23752695659250014, -0.4545173230725706, 0.25430738679134174,
          -0.07184294868303334
        ],
        [
          -0.13837516174048636, 0.22793005544397474, -0.027679996971137356,
          0.22134194536401033
        ],
        [
          -0.1580713743969002, 0.2430000505975322, 0.027650746400290964,
          -0.20240793623351733
        ],
        [
          -0.04131291187638808, -0.0633367162447191, 0.02927266552101733,
          -0.046023946414564115
        ],
        [
          0.18742333453857796, 0.2487706545675474, 0.04302148828413211,
          -0.0457457565863514
        ]
      ]
    }
  ]
}
